booster[0]:
0:[f29<-9.53674e-07] yes=1,no=2,missing=1
	1:[f56<-9.53674e-07] yes=3,no=4,missing=3
		3:[f60<-9.53674e-07] yes=7,no=8,missing=7
			7:[f23<-9.53674e-07] yes=13,no=14,missing=13
				13:[f24<-9.53674e-07] yes=19,no=20,missing=19
					19:leaf=1.99735
					20:leaf=-1.8
				14:leaf=-1.80952
			8:leaf=-1.95062
		4:[f21<-9.53674e-07] yes=9,no=10,missing=9
			9:leaf=1.77778
			10:leaf=-1.98104
	2:[f109<-9.53674e-07] yes=5,no=6,missing=5
		5:[f67<-9.53674e-07] yes=11,no=12,missing=11
			11:[f8<-9.53674e-07] yes=15,no=16,missing=15
				15:leaf=-1.99117
				16:leaf=1
			12:[f39<-9.53674e-07] yes=17,no=18,missing=17
				17:leaf=1.77143
				18:leaf=-1.5
		6:leaf=1.85965
booster[1]:
0:[f29<-9.53674e-07] yes=1,no=2,missing=1
	1:[f21<-9.53674e-07] yes=3,no=4,missing=3
		3:leaf=1.13207
		4:[f27<-9.53674e-07] yes=7,no=8,missing=7
			7:[f30<-9.53674e-07] yes=11,no=12,missing=11
				11:leaf=-1.12641
				12:leaf=1.08392
			8:leaf=1.09118
	2:[f109<-9.53674e-07] yes=5,no=6,missing=5
		5:[f67<-9.53674e-07] yes=9,no=10,missing=9
			9:[f39<-9.53674e-07] yes=13,no=14,missing=13
				13:[f21<-9.53674e-07] yes=17,no=18,missing=17
					17:leaf=-1.06692
					18:leaf=2.08
				14:leaf=-1.13236
			10:[f39<-9.53674e-07] yes=15,no=16,missing=15
				15:leaf=0.928896
				16:leaf=-0.784694
		6:leaf=0.994744
booster[2]:
0:[f29<-9.53674e-07] yes=1,no=2,missing=1
	1:[f21<-9.53674e-07] yes=3,no=4,missing=3
		3:leaf=1.03409
		4:[f27<-9.53674e-07] yes=7,no=8,missing=7
			7:[f30<-9.53674e-07] yes=11,no=12,missing=11
				11:leaf=-1.00925
				12:leaf=0.934041
			8:leaf=0.947964
	2:[f109<-9.53674e-07] yes=5,no=6,missing=5
		5:[f39<-9.53674e-07] yes=9,no=10,missing=9
			9:[f112<-9.53674e-07] yes=13,no=14,missing=13
				13:leaf=-0.862367
				14:[f79<-9.53674e-07] yes=15,no=16,missing=15
					15:leaf=0.996309
					16:leaf=-0.217869
			10:leaf=-1.03467
		6:leaf=0.773973
booster[3]:
0:[f29<-9.53674e-07] yes=1,no=2,missing=1
	1:[f56<-9.53674e-07] yes=3,no=4,missing=3
		3:[f60<-9.53674e-07] yes=7,no=8,missing=7
			7:[f36<-9.53674e-07] yes=11,no=12,missing=11
				11:[f21<-9.53674e-07] yes=15,no=16,missing=15
					15:leaf=0.535599
					16:leaf=-0.591832
				12:leaf=0.99398
			8:leaf=-0.731796
		4:leaf=-0.74401
	2:[f109<-9.53674e-07] yes=5,no=6,missing=5
		5:[f67<-9.53674e-07] yes=9,no=10,missing=9
			9:[f115<-9.53674e-07] yes=13,no=14,missing=13
				13:leaf=-0.991027
				14:[f86<-9.53674e-07] yes=17,no=18,missing=17
					17:leaf=-0.71378
					18:leaf=-0.010833
			10:leaf=0.382551
		6:leaf=0.587063
booster[4]:
0:[f29<-9.53674e-07] yes=1,no=2,missing=1
	1:[f21<-9.53674e-07] yes=3,no=4,missing=3
		3:leaf=0.949695
		4:[f27<-9.53674e-07] yes=7,no=8,missing=7
			7:[f30<-9.53674e-07] yes=13,no=14,missing=13
				13:leaf=-0.846263
				14:leaf=0.571051
			8:leaf=0.604424
	2:[f39<-9.53674e-07] yes=5,no=6,missing=5
		5:[f7<-9.53674e-07] yes=9,no=10,missing=9
			9:leaf=0.359876
			10:leaf=-0.0906721
		6:[f1<-9.53674e-07] yes=11,no=12,missing=11
			11:leaf=-0.902494
			12:leaf=-0.222349
booster[5]:
0:[f29<-9.53674e-07] yes=1,no=2,missing=1
	1:[f21<-9.53674e-07] yes=3,no=4,missing=3
		3:leaf=0.866121
		4:[f56<-9.53674e-07] yes=7,no=8,missing=7
			7:[f10<-9.53674e-07] yes=11,no=12,missing=11
				11:leaf=-0.172918
				12:leaf=0.444059
			8:leaf=-0.581706
	2:[f109<-9.53674e-07] yes=5,no=6,missing=5
		5:[f39<-9.53674e-07] yes=9,no=10,missing=9
			9:[f65<-9.53674e-07] yes=13,no=14,missing=13
				13:leaf=0.314289
				14:leaf=-0.137217
			10:leaf=-0.87866
		6:leaf=0.593857
booster[6]:
0:[f64<-9.53674e-07] yes=1,no=2,missing=1
	1:[f39<-9.53674e-07] yes=3,no=4,missing=3
		3:[f21<-9.53674e-07] yes=5,no=6,missing=5
			5:leaf=-0.16553
			6:leaf=0.424994
		4:[f118<-9.53674e-07] yes=7,no=8,missing=7
			7:leaf=-0.662592
			8:leaf=0.10184
	2:leaf=0.647963
booster[7]:
0:[f27<-9.53674e-07] yes=1,no=2,missing=1
	1:[f39<-9.53674e-07] yes=3,no=4,missing=3
		3:[f112<-9.53674e-07] yes=5,no=6,missing=5
			5:leaf=-0.205397
			6:[f55<-9.53674e-07] yes=9,no=10,missing=9
				9:leaf=0.531323
				10:leaf=0.0411505
		4:[f95<-9.53674e-07] yes=7,no=8,missing=7
			7:leaf=0.0893909
			8:leaf=-0.688257
	2:leaf=0.62192
booster[8]:
0:[f29<-9.53674e-07] yes=1,no=2,missing=1
	1:[f21<-9.53674e-07] yes=3,no=4,missing=3
		3:leaf=0.559472
		4:leaf=0.047577
	2:[f21<-9.53674e-07] yes=5,no=6,missing=5
		5:leaf=-0.522063
		6:leaf=0.185313
booster[9]:
0:[f106<-9.53674e-07] yes=1,no=2,missing=1
	1:[f36<-9.53674e-07] yes=3,no=4,missing=3
		3:leaf=-0.106198
		4:[f29<-9.53674e-07] yes=5,no=6,missing=5
			5:leaf=0.451254
			6:leaf=0.0100806
	2:leaf=-0.265738
booster[10]:
0:[f39<-9.53674e-07] yes=1,no=2,missing=1
	1:[f118<-9.53674e-07] yes=3,no=4,missing=3
		3:leaf=0.411374
		4:leaf=-0.00392402
	2:[f118<-9.53674e-07] yes=5,no=6,missing=5
		5:leaf=-0.370329
		6:leaf=0.106229
booster[11]:
0:[f126<-9.53674e-07] yes=1,no=2,missing=1
	1:[f21<-9.53674e-07] yes=3,no=4,missing=3
		3:leaf=-0.244834
		4:leaf=0.393425
	2:leaf=-0.191846
booster[12]:
0:[f65<-9.53674e-07] yes=1,no=2,missing=1
	1:leaf=0.281915
	2:[f126<-9.53674e-07] yes=3,no=4,missing=3
		3:leaf=0.0457934
		4:leaf=-0.335547
booster[13]:
0:[f39<-9.53674e-07] yes=1,no=2,missing=1
	1:[f55<-9.53674e-07] yes=3,no=4,missing=3
		3:leaf=0.298848
		4:leaf=-0.0234579
	2:leaf=-0.211675
booster[14]:
0:[f29<-9.53674e-07] yes=1,no=2,missing=1
	1:leaf=0.180838
	2:[f21<-9.53674e-07] yes=3,no=4,missing=3
		3:leaf=-0.28038
		4:leaf=0.0867539
booster[15]:
0:[f39<-9.53674e-07] yes=1,no=2,missing=1
	1:leaf=0.123414
	2:leaf=-0.136942
booster[16]:
0:[f36<-9.53674e-07] yes=1,no=2,missing=1
	1:leaf=-0.154724
	2:[f118<-9.53674e-07] yes=3,no=4,missing=3
		3:leaf=-0.17891
		4:leaf=0.28564
booster[17]:
0:[f29<-9.53674e-07] yes=1,no=2,missing=1
	1:leaf=0.1202
	2:leaf=-0.113537
booster[18]:
0:[f112<-9.53674e-07] yes=1,no=2,missing=1
	1:leaf=-0.0946849
	2:leaf=0.147314
booster[19]:
0:[f55<-9.53674e-07] yes=1,no=2,missing=1
	1:leaf=-0.128399
	2:leaf=0.117783
booster[20]:
0:[f36<-9.53674e-07] yes=1,no=2,missing=1
	1:leaf=-0.135164
	2:[f55<-9.53674e-07] yes=3,no=4,missing=3
		3:leaf=-0.042949
		4:leaf=0.173579
booster[21]:
0:[f39<-9.53674e-07] yes=1,no=2,missing=1
	1:leaf=0.0957448
	2:leaf=-0.104156
booster[22]:
0:[f29<-9.53674e-07] yes=1,no=2,missing=1
	1:leaf=0.0925588
	2:leaf=-0.0798059
booster[23]:
0:[f112<-9.53674e-07] yes=1,no=2,missing=1
	1:leaf=-0.0830908
	2:leaf=0.126943
booster[24]:
0:[f126<-9.53674e-07] yes=1,no=2,missing=1
	1:leaf=0.0823832
	2:leaf=-0.0899369
booster[25]:
0:[f3<-9.53674e-07] yes=1,no=2,missing=1
	1:leaf=0.0589036
	2:leaf=-0.0851568
booster[26]:
0:[f29<-9.53674e-07] yes=1,no=2,missing=1
	1:leaf=0.0859156
	2:leaf=-0.0815898
booster[27]:
0:[f21<-9.53674e-07] yes=1,no=2,missing=1
	1:leaf=0.0637587
	2:leaf=-0.048542
booster[28]:
0:[f55<-9.53674e-07] yes=1,no=2,missing=1
	1:leaf=-0.069489
	2:leaf=0.058072
booster[29]:
0:[f36<-9.53674e-07] yes=1,no=2,missing=1
	1:leaf=-0.149849
	2:leaf=0.0984096
booster[30]:
0:[f112<-9.53674e-07] yes=1,no=2,missing=1
	1:leaf=-0.0688469
	2:leaf=0.0689056
booster[31]:
0:[f55<-9.53674e-07] yes=1,no=2,missing=1
	1:leaf=-0.071993
	2:leaf=0.0544265
booster[32]:
0:[f29<-9.53674e-07] yes=1,no=2,missing=1
	1:leaf=0.0686437
	2:leaf=-0.061108
booster[33]:
0:[f39<-9.53674e-07] yes=1,no=2,missing=1
	1:leaf=0.0522195
	2:leaf=-0.0544709
booster[34]:
0:[f126<-9.53674e-07] yes=1,no=2,missing=1
	1:leaf=0.0445775
	2:leaf=-0.0612543
booster[35]:
0:[f112<-9.53674e-07] yes=1,no=2,missing=1
	1:leaf=-0.0370941
	2:leaf=0.0414116
booster[36]:
0:[f29<-9.53674e-07] yes=1,no=2,missing=1
	1:leaf=0.0491957
	2:leaf=-0.0374184
booster[37]:
0:[f55<-9.53674e-07] yes=1,no=2,missing=1
	1:leaf=-0.0428276
	2:leaf=0.0362258
booster[38]:
0:[f21<-9.53674e-07] yes=1,no=2,missing=1
	1:leaf=0.038428
	2:leaf=-0.0331781
booster[39]:
0:[f36<-9.53674e-07] yes=1,no=2,missing=1
	1:leaf=-0.14093
	2:leaf=0.101744
booster[40]:
0:[f39<-9.53674e-07] yes=1,no=2,missing=1
	1:leaf=0.0443167
	2:leaf=-0.0668384
booster[41]:
0:[f55<-9.53674e-07] yes=1,no=2,missing=1
	1:leaf=-0.0654174
	2:leaf=0.0401212
booster[42]:
0:[f118<-9.53674e-07] yes=1,no=2,missing=1
	1:leaf=0.0426251
	2:leaf=-0.0430745
booster[43]:
0:[f112<-9.53674e-07] yes=1,no=2,missing=1
	1:leaf=-0.0315924
	2:leaf=0.0413181
booster[44]:
0:[f55<-9.53674e-07] yes=1,no=2,missing=1
	1:leaf=-0.037716
	2:leaf=0.0316046
booster[45]:
0:[f29<-9.53674e-07] yes=1,no=2,missing=1
	1:leaf=0.0384603
	2:leaf=-0.031591
booster[46]:
0:[f9<-9.53674e-07] yes=1,no=2,missing=1
	1:leaf=-0.0264121
	2:leaf=0.0318885
booster[47]:
0:[f39<-9.53674e-07] yes=1,no=2,missing=1
	1:leaf=0.0258388
	2:leaf=-0.0263959
booster[48]:
0:[f118<-9.53674e-07] yes=1,no=2,missing=1
	1:leaf=0.0220629
	2:leaf=-0.0169775
booster[49]:
0:[f55<-9.53674e-07] yes=1,no=2,missing=1
	1:leaf=-0.0254499
	2:leaf=0.0207041
booster[50]:
0:[f126<-9.53674e-07] yes=1,no=2,missing=1
	1:leaf=0.022765
	2:leaf=-0.0334065
booster[51]:
0:[f21<-9.53674e-07] yes=1,no=2,missing=1
	1:leaf=0.022757
	2:leaf=-0.0227902
booster[52]:
0:[f29<-9.53674e-07] yes=1,no=2,missing=1
	1:leaf=0.0265489
	2:leaf=-0.0199871
booster[53]:
0:[f112<-9.53674e-07] yes=1,no=2,missing=1
	1:leaf=-0.0149867
	2:leaf=0.022471
booster[54]:
0:[f55<-9.53674e-07] yes=1,no=2,missing=1
	1:leaf=-0.0175078
	2:leaf=0.0157137
booster[55]:
0:[f29<-9.53674e-07] yes=1,no=2,missing=1
	1:leaf=0.0182503
	2:leaf=-0.0143524
booster[56]:
0:[f112<-9.53674e-07] yes=1,no=2,missing=1
	1:leaf=-0.0115217
	2:leaf=0.0166359
booster[57]:
0:[f51<-9.53674e-07] yes=1,no=2,missing=1
	1:leaf=0.0134613
	2:leaf=-0.0116378
booster[58]:
0:[f9<-9.53674e-07] yes=1,no=2,missing=1
	1:leaf=-0.00981541
	2:leaf=0.0115454
booster[59]:
0:[f55<-9.53674e-07] yes=1,no=2,missing=1
	1:leaf=-0.0116732
	2:leaf=0.00925633
booster[60]:
0:[f4<-9.53674e-07] yes=1,no=2,missing=1
	1:leaf=0.00879889
	2:leaf=-0.0122642
booster[61]:
0:[f29<-9.53674e-07] yes=1,no=2,missing=1
	1:leaf=0.0105853
	2:leaf=-0.00918858
booster[62]:
0:[f112<-9.53674e-07] yes=1,no=2,missing=1
	1:leaf=-0.00988643
	2:leaf=0.0133116
booster[63]:
0:[f51<-9.53674e-07] yes=1,no=2,missing=1
	1:leaf=0.00922858
	2:leaf=-0.00796718
booster[64]:
0:[f112<-9.53674e-07] yes=1,no=2,missing=1
	1:leaf=-0.00674803
	2:leaf=0.00923198
booster[65]:
0:[f29<-9.53674e-07] yes=1,no=2,missing=1
	1:leaf=0.00946677
	2:leaf=-0.00611888
booster[66]:
0:[f21<-9.53674e-07] yes=1,no=2,missing=1
	1:leaf=0.00809434
	2:leaf=-0.00524561
booster[67]:
0:[f51<-9.53674e-07] yes=1,no=2,missing=1
	1:leaf=0.0058383
	2:leaf=-0.0047337
booster[68]:
0:[f9<-9.53674e-07] yes=1,no=2,missing=1
	1:leaf=-0.00516364
	2:leaf=0.00612514
booster[69]:
0:[f112<-9.53674e-07] yes=1,no=2,missing=1
	1:leaf=-0.00393965
	2:leaf=0.0055112
booster[70]:
0:[f29<-9.53674e-07] yes=1,no=2,missing=1
	1:leaf=0.0062736
	2:leaf=-0.00406246
booster[71]:
0:[f39<-9.53674e-07] yes=1,no=2,missing=1
	1:leaf=0.00387397
	2:leaf=-0.00335857
booster[72]:
0:[f51<-9.53674e-07] yes=1,no=2,missing=1
	1:leaf=0.00378672
	2:leaf=-0.00363264
booster[73]:
0:[f112<-9.53674e-07] yes=1,no=2,missing=1
	1:leaf=-0.00348857
	2:leaf=0.00454308
booster[74]:
0:[f51<-9.53674e-07] yes=1,no=2,missing=1
	1:leaf=0.00310136
	2:leaf=-0.00269635
booster[75]:
0:[f112<-9.53674e-07] yes=1,no=2,missing=1
	1:leaf=-0.00232427
	2:leaf=0.00316355
booster[76]:
0:[f29<-9.53674e-07] yes=1,no=2,missing=1
	1:leaf=0.0033131
	2:leaf=-0.00214357
booster[77]:
0:[f9<-9.53674e-07] yes=1,no=2,missing=1
	1:leaf=-0.00198535
	2:leaf=0.00270199
booster[78]:
0:[f51<-9.53674e-07] yes=1,no=2,missing=1
	1:leaf=0.00189522
	2:leaf=-0.00163941
booster[79]:
0:[f112<-9.53674e-07] yes=1,no=2,missing=1
	1:leaf=-0.0018533
	2:leaf=0.00251417
booster[80]:
0:[f29<-9.53674e-07] yes=1,no=2,missing=1
	1:leaf=0.00213544
	2:leaf=-0.00134465
booster[81]:
0:[f112<-9.53674e-07] yes=1,no=2,missing=1
	1:leaf=-0.0010731
	2:leaf=0.0017787
booster[82]:
0:[f51<-9.53674e-07] yes=1,no=2,missing=1
	1:leaf=0.00170681
	2:leaf=-0.00144721
booster[83]:
0:[f112<-9.53674e-07] yes=1,no=2,missing=1
	1:leaf=-0.000965197
	2:leaf=0.00137187
booster[84]:
0:[f29<-9.53674e-07] yes=1,no=2,missing=1
	1:leaf=0.0014236
	2:leaf=-0.000908222
booster[85]:
0:[f9<-9.53674e-07] yes=1,no=2,missing=1
	1:leaf=-0.000799637
	2:leaf=0.00110198
booster[86]:
0:[f51<-9.53674e-07] yes=1,no=2,missing=1
	1:leaf=0.000950752
	2:leaf=-0.000839873
booster[87]:
0:[f112<-9.53674e-07] yes=1,no=2,missing=1
	1:leaf=-0.000841428
	2:leaf=0.0011364
booster[88]:
0:[f29<-9.53674e-07] yes=1,no=2,missing=1
	1:leaf=0.000900093
	2:leaf=-0.00055321
booster[89]:
0:[f112<-9.53674e-07] yes=1,no=2,missing=1
	1:leaf=-0.000479465
	2:leaf=0.000775463
booster[90]:
0:[f51<-9.53674e-07] yes=1,no=2,missing=1
	1:leaf=0.000824745
	2:leaf=-0.000703525
booster[91]:
0:[f112<-9.53674e-07] yes=1,no=2,missing=1
	1:leaf=-0.000446206
	2:leaf=0.000627391
booster[92]:
0:[f51<-9.53674e-07] yes=1,no=2,missing=1
	1:leaf=0.000531432
	2:leaf=-0.000464763
booster[93]:
0:[f39<-9.53674e-07] yes=1,no=2,missing=1
	1:leaf=0.000457717
	2:leaf=-0.000483533
booster[94]:
0:leaf=-8.69481e-06
booster[95]:
0:leaf=-2.22842e-06
booster[96]:
0:leaf=-7.41984e-07
booster[97]:
0:leaf=6.03395e-07
booster[98]:
0:leaf=-2.45552e-08
booster[99]:
0:leaf=-2.45552e-08
booster[100]:
0:leaf=-2.45552e-08
booster[101]:
0:leaf=-2.45552e-08
booster[102]:
0:leaf=-2.45552e-08
booster[103]:
0:leaf=-2.45552e-08
booster[104]:
0:leaf=-2.45552e-08
booster[105]:
0:leaf=-2.45552e-08
booster[106]:
0:leaf=-2.45552e-08
booster[107]:
0:leaf=-2.45552e-08
booster[108]:
0:leaf=-2.45552e-08
booster[109]:
0:leaf=-2.45552e-08
booster[110]:
0:leaf=-2.45552e-08
booster[111]:
0:leaf=-2.45552e-08
booster[112]:
0:leaf=-2.45552e-08
booster[113]:
0:leaf=-2.45552e-08
booster[114]:
0:leaf=-2.45552e-08
booster[115]:
0:leaf=-2.45552e-08
booster[116]:
0:leaf=-2.45552e-08
booster[117]:
0:leaf=-2.45552e-08
booster[118]:
0:leaf=-2.45552e-08
booster[119]:
0:leaf=-2.45552e-08
booster[120]:
0:leaf=-2.45552e-08
booster[121]:
0:leaf=-2.45552e-08
booster[122]:
0:leaf=-2.45552e-08
booster[123]:
0:leaf=-2.45552e-08
booster[124]:
0:leaf=-2.45552e-08
booster[125]:
0:leaf=-2.45552e-08
booster[126]:
0:leaf=-2.45552e-08
booster[127]:
0:leaf=-2.45552e-08
booster[128]:
0:leaf=-2.45552e-08
booster[129]:
0:leaf=-2.45552e-08
booster[130]:
0:leaf=-2.45552e-08
booster[131]:
0:leaf=-2.45552e-08
booster[132]:
0:leaf=-2.45552e-08
booster[133]:
0:leaf=-2.45552e-08
booster[134]:
0:leaf=-2.45552e-08
booster[135]:
0:leaf=-2.45552e-08
booster[136]:
0:leaf=-2.45552e-08
booster[137]:
0:leaf=-2.45552e-08
booster[138]:
0:leaf=-2.45552e-08
booster[139]:
0:leaf=-2.45552e-08
booster[140]:
0:leaf=-2.45552e-08
booster[141]:
0:leaf=-2.45552e-08
booster[142]:
0:leaf=-2.45552e-08
booster[143]:
0:leaf=-2.45552e-08
booster[144]:
0:leaf=-2.45552e-08
booster[145]:
0:leaf=-2.45552e-08
booster[146]:
0:leaf=-2.45552e-08
booster[147]:
0:leaf=-2.45552e-08
booster[148]:
0:leaf=-2.45552e-08
booster[149]:
0:leaf=-2.45552e-08
booster[150]:
0:leaf=-2.45552e-08
booster[151]:
0:leaf=-2.45552e-08
booster[152]:
0:leaf=-2.45552e-08
booster[153]:
0:leaf=-2.45552e-08
booster[154]:
0:leaf=-2.45552e-08
booster[155]:
0:leaf=-2.45552e-08
booster[156]:
0:leaf=-2.45552e-08
booster[157]:
0:leaf=-2.45552e-08
booster[158]:
0:leaf=-2.45552e-08
booster[159]:
0:leaf=-2.45552e-08
booster[160]:
0:leaf=-2.45552e-08
booster[161]:
0:leaf=-2.45552e-08
booster[162]:
0:leaf=-2.45552e-08
booster[163]:
0:leaf=-2.45552e-08
booster[164]:
0:leaf=-2.45552e-08
booster[165]:
0:leaf=-2.45552e-08
booster[166]:
0:leaf=-2.45552e-08
booster[167]:
0:leaf=-2.45552e-08
booster[168]:
0:leaf=-2.45552e-08
booster[169]:
0:leaf=-2.45552e-08
booster[170]:
0:leaf=-2.45552e-08
booster[171]:
0:leaf=-2.45552e-08
booster[172]:
0:leaf=-2.45552e-08
booster[173]:
0:leaf=-2.45552e-08
booster[174]:
0:leaf=-2.45552e-08
booster[175]:
0:leaf=-2.45552e-08
booster[176]:
0:leaf=-2.45552e-08
booster[177]:
0:leaf=-2.45552e-08
booster[178]:
0:leaf=-2.45552e-08
booster[179]:
0:leaf=-2.45552e-08
booster[180]:
0:leaf=-2.45552e-08
booster[181]:
0:leaf=-2.45552e-08
booster[182]:
0:leaf=-2.45552e-08
booster[183]:
0:leaf=-2.45552e-08
booster[184]:
0:leaf=-2.45552e-08
booster[185]:
0:leaf=-2.45552e-08
booster[186]:
0:leaf=-2.45552e-08
booster[187]:
0:leaf=-2.45552e-08
booster[188]:
0:leaf=-2.45552e-08
booster[189]:
0:leaf=-2.45552e-08
booster[190]:
0:leaf=-2.45552e-08
booster[191]:
0:leaf=-2.45552e-08
booster[192]:
0:leaf=-2.45552e-08
booster[193]:
0:leaf=-2.45552e-08
booster[194]:
0:leaf=-2.45552e-08
booster[195]:
0:leaf=-2.45552e-08
booster[196]:
0:leaf=-2.45552e-08
booster[197]:
0:leaf=-2.45552e-08
booster[198]:
0:leaf=-2.45552e-08
booster[199]:
0:leaf=-2.45552e-08